digraph Tree {
node [shape=box, style="filled, rounded", color="black", fontname=helvetica] ;
edge [fontname=helvetica] ;
0 [label="FLOORS <= 0.5\ngini = 0.493\nsamples = 548\nvalue = [307, 241]\nclass = False", fillcolor="#e5813937"] ;
1 [label="BEDROOMS <= 0.5\ngini = 0.46\nsamples = 271\nvalue = [97, 174]\nclass = True", fillcolor="#399de571"] ;
0 -> 1 [labeldistance=2.5, labelangle=45, headlabel="True"] ;
2 [label="BATHROOMS <= 0.5\ngini = 0.403\nsamples = 222\nvalue = [62, 160]\nclass = True", fillcolor="#399de59c"] ;
1 -> 2 ;
3 [label="CONDITION <= 0.5\ngini = 0.313\nsamples = 67\nvalue = [13, 54]\nclass = True", fillcolor="#399de5c2"] ;
2 -> 3 ;
4 [label="gini = 0.434\nsamples = 22\nvalue = [7, 15]\nclass = True", fillcolor="#399de588"] ;
3 -> 4 ;
5 [label="gini = 0.231\nsamples = 45\nvalue = [6, 39]\nclass = True", fillcolor="#399de5d8"] ;
3 -> 5 ;
6 [label="GRADE <= 0.5\ngini = 0.432\nsamples = 155\nvalue = [49, 106]\nclass = True", fillcolor="#399de589"] ;
2 -> 6 ;
7 [label="CONDITION <= 0.5\ngini = 0.437\nsamples = 127\nvalue = [41, 86]\nclass = True", fillcolor="#399de585"] ;
6 -> 7 ;
8 [label="gini = 0.418\nsamples = 47\nvalue = [14, 33]\nclass = True", fillcolor="#399de593"] ;
7 -> 8 ;
9 [label="gini = 0.447\nsamples = 80\nvalue = [27, 53]\nclass = True", fillcolor="#399de57d"] ;
7 -> 9 ;
10 [label="CONDITION <= 0.5\ngini = 0.408\nsamples = 28\nvalue = [8, 20]\nclass = True", fillcolor="#399de599"] ;
6 -> 10 ;
11 [label="gini = 0.496\nsamples = 11\nvalue = [5, 6]\nclass = True", fillcolor="#399de52a"] ;
10 -> 11 ;
12 [label="gini = 0.291\nsamples = 17\nvalue = [3, 14]\nclass = True", fillcolor="#399de5c8"] ;
10 -> 12 ;
13 [label="BATHROOMS <= 0.5\ngini = 0.408\nsamples = 49\nvalue = [35, 14]\nclass = False", fillcolor="#e5813999"] ;
1 -> 13 ;
14 [label="gini = 0.0\nsamples = 1\nvalue = [0, 1]\nclass = True", fillcolor="#399de5ff"] ;
13 -> 14 ;
15 [label="GRADE <= 0.5\ngini = 0.395\nsamples = 48\nvalue = [35, 13]\nclass = False", fillcolor="#e58139a0"] ;
13 -> 15 ;
16 [label="CONDITION <= 0.5\ngini = 0.32\nsamples = 25\nvalue = [20, 5]\nclass = False", fillcolor="#e58139bf"] ;
15 -> 16 ;
17 [label="gini = 0.375\nsamples = 8\nvalue = [6, 2]\nclass = False", fillcolor="#e58139aa"] ;
16 -> 17 ;
18 [label="gini = 0.291\nsamples = 17\nvalue = [14, 3]\nclass = False", fillcolor="#e58139c8"] ;
16 -> 18 ;
19 [label="CONDITION <= 0.5\ngini = 0.454\nsamples = 23\nvalue = [15, 8]\nclass = False", fillcolor="#e5813977"] ;
15 -> 19 ;
20 [label="gini = 0.5\nsamples = 6\nvalue = [3, 3]\nclass = False", fillcolor="#e5813900"] ;
19 -> 20 ;
21 [label="gini = 0.415\nsamples = 17\nvalue = [12, 5]\nclass = False", fillcolor="#e5813995"] ;
19 -> 21 ;
22 [label="BEDROOMS <= 0.5\ngini = 0.367\nsamples = 277\nvalue = [210, 67]\nclass = False", fillcolor="#e58139ae"] ;
0 -> 22 [labeldistance=2.5, labelangle=-45, headlabel="False"] ;
23 [label="CONDITION <= 0.5\ngini = 0.46\nsamples = 117\nvalue = [75, 42]\nclass = False", fillcolor="#e5813970"] ;
22 -> 23 ;
24 [label="BATHROOMS <= 0.5\ngini = 0.408\nsamples = 91\nvalue = [65, 26]\nclass = False", fillcolor="#e5813999"] ;
23 -> 24 ;
25 [label="gini = 0.0\nsamples = 2\nvalue = [0, 2]\nclass = True", fillcolor="#399de5ff"] ;
24 -> 25 ;
26 [label="VIEW <= 0.5\ngini = 0.394\nsamples = 89\nvalue = [65, 24]\nclass = False", fillcolor="#e58139a1"] ;
24 -> 26 ;
27 [label="GRADE <= 0.5\ngini = 0.378\nsamples = 87\nvalue = [65, 22]\nclass = False", fillcolor="#e58139a9"] ;
26 -> 27 ;
28 [label="gini = 0.325\nsamples = 49\nvalue = [39, 10]\nclass = False", fillcolor="#e58139be"] ;
27 -> 28 ;
29 [label="gini = 0.432\nsamples = 38\nvalue = [26, 12]\nclass = False", fillcolor="#e5813989"] ;
27 -> 29 ;
30 [label="gini = 0.0\nsamples = 2\nvalue = [0, 2]\nclass = True", fillcolor="#399de5ff"] ;
26 -> 30 ;
31 [label="VIEW <= 0.5\ngini = 0.473\nsamples = 26\nvalue = [10, 16]\nclass = True", fillcolor="#399de560"] ;
23 -> 31 ;
32 [label="GRADE <= 0.5\ngini = 0.486\nsamples = 24\nvalue = [10, 14]\nclass = True", fillcolor="#399de549"] ;
31 -> 32 ;
33 [label="gini = 0.494\nsamples = 9\nvalue = [4, 5]\nclass = True", fillcolor="#399de533"] ;
32 -> 33 ;
34 [label="gini = 0.48\nsamples = 15\nvalue = [6, 9]\nclass = True", fillcolor="#399de555"] ;
32 -> 34 ;
35 [label="gini = 0.0\nsamples = 2\nvalue = [0, 2]\nclass = True", fillcolor="#399de5ff"] ;
31 -> 35 ;
36 [label="VIEW <= 0.5\ngini = 0.264\nsamples = 160\nvalue = [135, 25]\nclass = False", fillcolor="#e58139d0"] ;
22 -> 36 ;
37 [label="CONDITION <= 0.5\ngini = 0.251\nsamples = 156\nvalue = [133, 23]\nclass = False", fillcolor="#e58139d3"] ;
36 -> 37 ;
38 [label="BATHROOMS <= 0.5\ngini = 0.271\nsamples = 124\nvalue = [104, 20]\nclass = False", fillcolor="#e58139ce"] ;
37 -> 38 ;
39 [label="gini = 0.0\nsamples = 1\nvalue = [1, 0]\nclass = False", fillcolor="#e58139ff"] ;
38 -> 39 ;
40 [label="GRADE <= 0.5\ngini = 0.272\nsamples = 123\nvalue = [103, 20]\nclass = False", fillcolor="#e58139cd"] ;
38 -> 40 ;
41 [label="gini = 0.283\nsamples = 41\nvalue = [34, 7]\nclass = False", fillcolor="#e58139ca"] ;
40 -> 41 ;
42 [label="gini = 0.267\nsamples = 82\nvalue = [69, 13]\nclass = False", fillcolor="#e58139cf"] ;
40 -> 42 ;
43 [label="GRADE <= 0.5\ngini = 0.17\nsamples = 32\nvalue = [29, 3]\nclass = False", fillcolor="#e58139e5"] ;
37 -> 43 ;
44 [label="gini = 0.165\nsamples = 11\nvalue = [10, 1]\nclass = False", fillcolor="#e58139e6"] ;
43 -> 44 ;
45 [label="gini = 0.172\nsamples = 21\nvalue = [19, 2]\nclass = False", fillcolor="#e58139e4"] ;
43 -> 45 ;
46 [label="gini = 0.5\nsamples = 4\nvalue = [2, 2]\nclass = False", fillcolor="#e5813900"] ;
36 -> 46 ;
}